13 100
F2V_CONDBR 0.000659 0.008493 0.006032 -0.015343 0.004547 -0.009934 0.013290 0.000894 -0.003425 0.014978 0.005176 0.002937 0.007346 -0.005954 0.008455 -0.000658 -0.018302 -0.005658 0.012555 -0.001843 -0.003773 -0.013741 -0.006077 0.001817 -0.000730 -0.007182 -0.005532 0.009968 -0.004574 -0.014598 0.020030 0.019996 -0.011662 0.013235 -0.006544 0.000349 0.005327 0.004832 0.008805 -0.010562 -0.006887 0.009956 -0.009868 -0.009517 0.004077 -0.008389 0.003613 -0.004748 -0.005755 -0.001723 0.005137 0.006203 -0.000284 0.007110 0.003446 0.009366 0.004425 -0.018274 -0.007080 0.014523 -0.027440 -0.010589 -0.006062 -0.018371 0.002730 0.008418 0.000117 -0.000674 0.002852 0.001114 -0.005464 -0.000636 0.003516 -0.000519 -0.006120 0.002601 0.011473 -0.004675 -0.003111 0.006629 -0.005145 -0.012694 0.006399 -0.011147 -0.004645 0.002600 0.019813 0.010024 0.016867 0.014511 -0.006295 -0.013751 0.000350 0.009184 -0.003169 0.015291 0.011791 0.008545 0.001282 0.005856
F2V_INST_icmp -0.007590 0.006519 0.012764 -0.017387 -0.000108 -0.002836 0.012933 -0.005335 -0.007289 0.017060 0.010303 0.004852 0.002085 -0.009396 0.010694 0.000540 -0.019056 -0.003048 0.011121 0.004392 -0.008798 -0.010966 -0.004061 0.002477 0.002945 -0.003081 -0.000434 0.012941 -0.003389 -0.013690 0.016770 0.013413 -0.008996 0.013297 0.000358 -0.004537 0.009962 0.005291 0.010986 -0.009991 -0.001220 0.010627 -0.010664 -0.006011 0.004428 -0.002464 0.010522 -0.010368 0.002188 0.004895 -0.000105 0.009895 -0.005941 -0.002806 -0.006058 0.005395 0.004364 -0.018653 -0.001502 0.011914 -0.027261 -0.009431 0.003345 -0.020808 0.002805 0.010453 -0.006943 0.001870 0.002310 -0.003561 -0.004032 0.007453 0.007507 -0.004469 0.002831 -0.002213 0.015353 0.001270 0.003007 0.010389 -0.011001 -0.013179 0.006099 -0.012103 -0.006196 -0.003890 0.019478 0.004905 0.017277 0.012824 -0.007617 -0.012370 0.001885 0.007694 0.001400 0.015889 0.010671 0.008592 0.000081 0.001716
func7 -0.006058 0.008546 0.008344 -0.004108 0.002346 -0.005791 0.013558 -0.005873 -0.003134 0.008777 0.006130 -0.002387 0.001018 -0.005679 0.007260 -0.001571 -0.012560 -0.002455 0.009341 0.001058 0.000931 -0.009826 -0.006590 0.003193 0.004523 0.002002 0.000703 0.011627 -0.006448 -0.011769 0.014254 0.012562 -0.008937 0.008951 -0.000755 -0.003156 0.000836 -0.001289 0.001968 -0.010446 -0.000917 0.002048 -0.003564 -0.001043 0.007103 -0.004187 -0.001203 -0.007794 -0.001608 0.001859 0.004458 0.008391 0.000945 0.006337 0.002873 0.003835 -0.002447 -0.013185 -0.004035 0.005379 -0.019798 -0.000816 -0.000237 -0.009395 -0.001652 -0.000919 -0.002063 -0.001373 0.005317 0.002703 -0.000177 0.003541 -0.000504 0.003861 -0.001709 -0.001887 0.004204 -0.005044 -0.005745 0.007388 0.000058 -0.010854 -0.002053 -0.004918 -0.004030 -0.002382 0.013796 0.002603 0.010470 0.010974 -0.005358 -0.008129 0.003086 -0.001120 0.002429 0.009745 0.008928 0.002154 -0.000946 0.000118
interesting -0.004926 0.000718 0.006618 -0.010363 -0.003378 -0.007322 0.003812 0.003632 -0.001372 0.010878 0.007116 0.000023 0.002049 -0.008070 0.008744 0.001507 -0.013794 -0.004347 0.004947 -0.002708 -0.002050 -0.004835 0.001210 -0.002256 -0.004139 -0.005425 0.001235 0.010978 -0.005523 -0.007975 0.009125 0.006548 0.000221 0.004088 -0.004295 0.002059 0.006755 0.000203 0.001586 -0.006883 -0.002926 0.009290 -0.001488 -0.000803 -0.000374 -0.008057 0.004622 -0.006474 0.000164 0.002716 -0.003738 0.005070 -0.003662 0.001957 0.002273 0.002519 -0.001607 -0.009608 0.000302 0.006793 -0.016832 -0.001221 0.003543 -0.012951 0.002025 0.007986 -0.002525 -0.000444 0.001009 -0.004249 0.003567 0.002712 0.005259 -0.002553 0.002208 0.002747 0.007733 -0.005646 -0.001517 0.001007 -0.005031 -0.003477 -0.000758 -0.002279 -0.005688 0.000032 0.011614 0.002759 0.013699 0.003607 -0.002106 -0.004997 0.002264 0.003391 -0.003913 0.004668 0.005084 0.007022 0.001265 0.005358
F2V_INST_load -0.000699 0.008335 0.008598 -0.014041 0.006551 -0.002033 0.013094 -0.002170 -0.002466 0.013472 0.000476 0.006236 -0.001946 -0.003499 0.004571 0.003969 -0.016527 -0.006572 0.004294 0.005601 -0.008590 -0.006083 -0.006260 0.004083 0.003613 -0.003433 0.002288 0.013272 -0.007266 -0.006856 0.013011 0.015221 -0.004652 0.004259 -0.004819 -0.002494 0.002111 0.003602 0.009354 -0.009033 -0.004096 0.001318 -0.011376 -0.008377 0.000898 -0.007824 0.001934 -0.004539 0.003627 -0.004724 -0.003045 0.009675 -0.005486 0.002361 -0.003218 0.007815 -0.002497 -0.015369 -0.003303 0.009016 -0.020737 -0.004999 -0.003942 -0.016011 0.004705 0.002691 0.000077 -0.001813 -0.002593 0.002427 -0.002279 -0.002934 0.005121 -0.002733 -0.002132 0.000274 0.012824 -0.001363 0.000806 0.007694 -0.002075 -0.005525 -0.001439 -0.007988 0.003468 0.002708 0.011945 -0.000848 0.015338 0.003750 -0.007244 -0.009316 -0.001635 -0.000498 0.001869 0.004792 0.010583 0.004659 -0.002508 0.007063
func6 -0.004865 -0.000395 0.003243 -0.005481 0.003028 -0.001965 0.006058 0.001711 -0.004401 0.003045 0.005717 0.003464 0.001425 -0.004720 0.007458 -0.000871 -0.006249 -0.000557 0.001499 0.003778 -0.002414 -0.008095 0.001443 -0.000788 -0.004109 -0.003556 -0.000874 0.000490 -0.005485 -0.006868 0.008968 0.008472 -0.000315 0.007057 0.002064 0.002109 -0.001017 0.003281 -0.001998 -0.006956 0.001551 0.004895 -0.007289 -0.005636 0.002532 0.000212 0.004880 -0.003742 -0.001353 -0.002968 0.003455 0.007028 0.003695 -0.000053 -0.003771 -0.001345 0.001633 -0.007964 0.001956 0.005955 -0.010383 -0.005663 0.001624 -0.003635 -0.003332 -0.002618 -0.003126 -0.000501 -0.000171 0.002300 -0.000878 0.000309 -0.001482 0.000328 -0.002631 0.003794 -0.000827 0.001949 -0.001381 0.005956 -0.004857 -0.004420 0.004966 0.001270 0.001321 0.003348 0.005144 0.006434 0.005880 0.007329 0.001336 -0.007296 -0.002968 0.002370 -0.002962 0.006593 0.002262 0.005940 -0.003740 -0.000219
func5 -0.001005 0.002622 0.008081 -0.003240 0.004449 -0.000064 0.008238 0.001315 -0.005349 0.008993 0.006303 -0.000977 0.001305 -0.004054 0.002838 0.003142 -0.006858 -0.005465 0.008202 0.003628 -0.002207 -0.005525 -0.003971 0.003459 0.002980 0.000262 0.001613 0.008436 -0.005719 0.000311 0.009875 0.009183 0.000357 0.000688 -0.000459 -0.000271 0.005374 0.002595 0.004556 -0.003196 -0.005240 0.005517 -0.002311 -0.005719 0.000271 -0.000370 0.004879 -0.002261 -0.005058 -0.003137 0.002104 0.001091 -0.000815 -0.004524 -0.003519 -0.001600 0.003090 -0.008707 0.002482 0.008666 -0.013063 -0.002694 0.004610 -0.003376 0.005025 -0.001245 -0.001186 -0.003843 -0.000407 0.002674 0.002403 0.005846 0.003081 -0.003633 0.000961 0.000063 0.002145 -0.005151 0.000150 0.002802 0.000838 -0.004489 -0.002088 -0.007412 0.002480 -0.003617 0.007861 -0.001117 0.004478 0.006937 0.000322 -0.006065 -0.005526 0.003888 -0.003205 0.005205 0.007141 -0.000752 0.002110 0.001012
func3 0.001746 -0.000936 0.007567 -0.008432 -0.003376 -0.000663 0.005363 -0.003800 -0.004209 0.001306 0.003087 0.005060 0.006279 -0.004028 0.005386 0.003679 -0.002679 0.002515 0.002645 0.003401 -0.005495 -0.009237 0.001460 -0.003406 0.001629 0.001111 -0.003785 0.007335 -0.004505 -0.006775 0.003926 0.009169 -0.004590 0.005903 -0.005998 -0.000711 0.005928 0.003196 -0.001729 -0.004546 -0.006343 0.000747 -0.008421 -0.007639 0.003890 -0.007224 -0.000627 0.001000 0.000351 -0.001776 -0.004189 0.008192 0.000846 -0.001836 0.004078 -0.000063 0.001061 -0.002446 -0.004670 0.007473 -0.013157 -0.004261 0.002878 -0.006500 0.004724 0.005687 -0.005593 -0.001933 -0.002236 -0.000807 -0.000004 -0.000522 0.002878 0.002989 -0.004583 -0.003390 0.007880 0.001032 0.003753 -0.002385 -0.004386 -0.008320 0.005524 -0.006212 0.001713 -0.001266 0.005674 0.001595 0.009164 0.000895 -0.001013 -0.005757 -0.001550 0.002725 -0.000667 0.005260 0.009004 0.005918 0.000488 0.003537
foo 0.003219 -0.000464 0.006988 -0.009267 0.003977 -0.005090 0.006393 0.002391 -0.006190 0.007786 -0.000019 -0.002917 -0.000669 -0.005329 -0.000241 -0.002207 -0.004256 0.001466 0.000127 0.000071 -0.000611 -0.005461 0.003501 0.004379 -0.003172 -0.004444 -0.005065 0.003437 -0.005299 0.000209 0.008067 0.009803 0.000432 0.001334 -0.000757 -0.001128 -0.000995 0.001707 0.002022 -0.007513 -0.003828 0.007035 -0.007295 -0.006673 0.000134 -0.000084 0.000566 0.001102 -0.004926 0.001726 -0.003457 0.006924 0.003452 0.003262 0.004363 0.003033 0.004941 -0.006975 0.003221 -0.000053 -0.008029 0.000537 -0.003371 -0.006699 -0.002842 0.004387 0.003239 -0.000009 0.004555 -0.000751 -0.005449 0.004554 -0.001103 0.001468 -0.001619 -0.000904 0.005341 -0.005654 -0.004597 0.000849 0.001650 0.000318 0.002128 -0.005243 -0.002477 -0.000666 0.006704 -0.002089 0.006046 0.002033 -0.005286 -0.002373 -0.003839 0.005503 -0.001732 0.001793 0.000145 0.002682 -0.001517 -0.002256
func2 0.000073 0.000321 0.000323 -0.010152 0.004833 -0.001395 0.006610 0.001064 -0.000263 0.008409 -0.001741 0.006093 0.005623 -0.000111 0.000511 0.005014 -0.011606 0.001184 0.007357 0.006067 -0.004278 -0.005291 -0.002875 0.004732 -0.002497 -0.002530 0.000163 0.009856 -0.006976 -0.005089 0.008461 0.006482 -0.007503 0.004358 -0.005919 0.001187 -0.002287 -0.003081 0.000830 -0.000279 -0.006964 0.004645 -0.006458 0.000855 0.005151 -0.003430 0.006932 -0.005908 0.003810 0.004589 0.004264 0.000232 0.002952 0.002128 0.001416 0.003917 0.001341 -0.010049 -0.000255 0.008234 -0.013891 -0.007231 -0.001014 -0.012548 -0.001848 0.006185 0.002802 0.003352 -0.001371 0.004617 0.000077 -0.000005 -0.001161 -0.001581 -0.003697 -0.000599 0.005293 -0.000243 -0.004471 -0.000178 -0.006573 -0.002992 -0.000988 -0.002823 0.003999 0.005268 0.004172 -0.000961 0.009991 -0.000065 -0.004136 -0.005354 -0.004204 0.001915 0.001602 0.010180 0.006944 -0.001775 -0.003078 -0.000304
func4 0.003567 0.001779 0.004172 -0.010949 0.001277 -0.004491 0.008836 -0.006005 -0.006428 0.003060 0.003459 0.002126 -0.001387 -0.007546 0.003034 0.000550 -0.008597 -0.005563 0.010218 0.004033 -0.004571 -0.000873 -0.005271 0.004164 -0.001565 0.000703 -0.004819 0.005120 -0.000996 -0.009491 0.007602 0.011845 -0.001624 0.003335 -0.007421 -0.003005 0.007008 0.002330 0.004841 -0.002364 -0.001596 0.006905 -0.006612 -0.003109 0.001960 0.000477 0.000322 -0.006662 0.002493 -0.003198 -0.002590 -0.000152 0.004005 0.003942 0.002029 -0.000962 -0.001250 -0.004873 -0.006618 0.003889 -0.009180 -0.002196 -0.002497 -0.009727 -0.002951 -0.000090 0.003244 0.002925 0.004225 -0.001397 0.003302 -0.001742 0.002037 0.002643 0.001518 -0.002489 0.006514 -0.006622 -0.004209 -0.000524 -0.005816 -0.008579 0.006659 -0.005447 -0.000444 0.004483 0.011660 0.004864 0.012943 0.006693 -0.002453 -0.001248 -0.005066 0.004393 0.003058 0.002852 0.006830 0.001264 -0.004798 0.003600
function1 -0.003767 -0.000585 -0.002781 -0.001946 -0.004366 -0.005320 0.006118 -0.003115 -0.006402 -0.001063 0.005841 -0.004280 0.005163 -0.003027 -0.000949 -0.002845 -0.005972 -0.001027 0.002243 0.003557 -0.000666 -0.002595 -0.005196 -0.004615 -0.003996 -0.000340 -0.005021 0.000032 -0.000565 0.000106 0.000321 0.007797 -0.005956 -0.002832 0.001855 -0.000469 0.006256 -0.002329 -0.001328 -0.002536 0.003369 0.001349 -0.000404 -0.004105 0.000840 -0.004128 0.005649 -0.004750 -0.002380 -0.002445 -0.002714 -0.003090 -0.003920 0.002485 0.000029 0.005629 -0.003002 -0.000636 0.002576 0.001173 -0.009774 0.003487 0.002807 -0.006900 -0.000867 -0.003608 -0.003645 0.000948 0.000172 0.000069 -0.000059 0.002695 0.005550 0.001183 -0.000129 -0.001589 0.005228 0.002577 -0.003264 0.002814 -0.003893 0.002276 0.001213 -0.001069 -0.001737 -0.001383 0.006367 0.004362 0.003634 0.001851 -0.004500 -0.001447 0.004248 -0.000903 0.002087 0.007253 0.000971 0.003699 0.002515 0.002836
F2V_INST_alloca 0.000034 0.002345 0.007408 -0.002702 0.004162 -0.007179 0.008121 -0.006093 -0.006879 0.009863 0.006484 -0.000180 -0.000682 -0.001465 0.005241 -0.004098 -0.012995 -0.007476 0.004361 0.002573 0.002567 -0.004429 -0.000516 -0.003339 -0.001918 0.002109 0.000880 0.007117 -0.008214 -0.003090 0.008712 0.005490 -0.008480 0.006122 -0.007476 0.002845 0.005828 0.000572 0.000492 -0.000134 -0.001408 0.002866 -0.009637 -0.008059 0.003122 -0.004756 0.007137 -0.003390 0.001416 -0.002080 0.002726 0.006818 -0.001851 0.000067 -0.003847 0.001348 0.003663 -0.005245 -0.002700 0.006992 -0.009367 0.000707 -0.004501 -0.011113 0.003145 0.002164 -0.005737 -0.002645 0.004487 0.002222 -0.002130 0.001284 0.002844 0.002648 0.000730 0.002747 0.008907 -0.002422 0.003684 0.005562 -0.004984 -0.010091 -0.001909 -0.007255 0.001063 0.001080 0.011408 0.007653 0.011794 0.010141 -0.003945 -0.008087 0.000558 0.000183 -0.002663 0.004974 0.005884 0.008373 0.003377 0.006736
